{
  "input_nodes": 5,
  "hidden_nodes": 8,
  "output_nodes": 2,
  "weights_ih": {
    "rows": 8,
    "cols": 5,
    "data": [
      [
        0.1292920872485122,
        -0.656053964138373,
        -0.7832521908047175,
        -0.034356945049840805,
        -0.6758940044268731
      ],
      [
        0.9687170346507066,
        0.46749836262777256,
        -0.19840041192958036,
        0.8085705608566742,
        0.337679768325586
      ],
      [
        -0.7800264596542059,
        0.7232150423248883,
        -0.01986050681485233,
        -0.1141955893243556,
        -0.47041742261063346
      ],
      [
        -0.4725176672394694,
        -0.8442255032965191,
        0.8236562479765835,
        0.2846695976482279,
        -0.1328242029838453
      ],
      [
        -0.29199079445234233,
        0.7192460981553168,
        0.36347383232915087,
        0.6628388693811408,
        0.14378828954652864
      ],
      [
        -0.4868143791514306,
        -0.2907441356658063,
        -0.6687222714370928,
        0.0027450776968884344,
        -0.009880489233000429
      ],
      [
        -0.36883702152123987,
        0.4774421867270581,
        0.6480159004458849,
        0.3005610680532636,
        -0.2786698951919731
      ],
      [
        -0.166386297755188,
        0.52287310797089,
        0.6577831826459385,
        -1.0451844716162493,
        -0.10997987466234271
      ]
    ]
  },
  "weights_ho": {
    "rows": 2,
    "cols": 8,
    "data": [
      [
        -0.36502300281050126,
        0.7214725851852976,
        -0.8197589703320965,
        0.9324025990398764,
        -0.6610826642004035,
        -0.9925595676917159,
        0.16804686489699666,
        0.7229611753024029
      ],
      [
        -0.3768098546054938,
        -0.10744752355884392,
        -0.11817705853529208,
        0.45485047821347246,
        0.9439757088297597,
        0.08397815440130503,
        -0.23174520183042457,
        0.766632535204779
      ]
    ]
  },
  "bias_h": {
    "rows": 8,
    "cols": 1,
    "data": [
      [
        0.7684619229268475
      ],
      [
        0.07886480716657365
      ],
      [
        0.17073582105566795
      ],
      [
        -0.2540301823155657
      ],
      [
        -0.09084200812050404
      ],
      [
        -0.490973766711544
      ],
      [
        -0.6158787847184616
      ],
      [
        -0.8890168427267724
      ]
    ]
  },
  "bias_o": {
    "rows": 2,
    "cols": 1,
    "data": [
      [
        0.7505192180707054
      ],
      [
        0.17438923836995515
      ]
    ]
  },
  "learning_rate": 0.1,
  "activation_function": {}
}
